-0.000614554578888
0.000527909304859
-0.000420475814667
0.000177556942084
-0.0011353046022
0.000481715208477
0.00115646556506
0.000223541012912
0.000608084226125
-0.000162547814455
5.24909561901e-05
0.000122640725002
-0.000633062630702
-0.000412270181895
0.000292941825908
-0.000981013927521
0.000565326505867
-0.000777695685724
-0.000480286663404
-0.000437175311592
0.000746692904682
-0.000897111222544
-0.000586088669707
-0.000883239202792
-0.000747944622487
0.000647795048845
3.69451127266e-06
0.000148933839626
-0.000727037797265
0.00034194744479
-0.000499182884763
0.000395801878564
-0.000608085271193
0.000118825595673
-0.000244397063919
0.000334924477444
0.000260795360873
-0.00088735628076
0.00079390793767
0.00126080514516
0.000541098957992
-9.23159560244e-05
0.000552378162341
-0.000536980630093
-0.000641974280945
-0.000726908949432
0.000772558936748
0.000847312509684
-0.000112453566264
0.00108999498644
0.000965678876346
-0.000551338398541
0.000757455683958
-0.00078003414621
0.000334784573003
-0.000778972134327
-0.000396187748675
-0.00110519678531
-0.000327102796586
0.000642417214091
-0.000836003798159
-8.68881308309e-05
0.000303693966603
0.00142375807951
0.000399956517049
-3.05775193433e-05
0.000770877335157
0.000724137197366
0.000667502375607
8.45835114739e-05
0.000638302652984
0.00029208290041
-0.00106943946584
0.000730750743135
0.000628860429086
0.00120682381023
6.68737609797e-06
0.000586435660293
0.00138559799331
-0.000828993457227
0.000782222295696
0.000322364164763
1.27860323926e-05
-0.000977043585293
-0.00108625728572
-0.000189348030667
0.000523782930601
-0.00116132429475
-0.000998608460101
-0.000722154915954
-0.000211726988213
-0.0007397057946
0.000487675149037
-0.00010278092323
0.00031267555275
-0.0011905137814
-1.66818519383e-05
-0.0011109752546
8.64402341518e-05
-0.000204088748643
-0.000626814133413
-0.000960292120396
7.69380407732e-05
0.000108779498346
0.000368133029295
-0.00050631525867
-0.000379801395029
-0.000811507954986
0.000318307643154
-0.000657991510779
-0.000798274866122
0.0003604480534
-0.000900263333297
-0.00095504719714
0.000487180277239
0.000710688372132
0.000381808356849
-0.000273582634544
0.000399898231669
-0.000342094484527
1.13682158115e-05
0.000940527419326
-0.00076619934514
-0.0002179589565
0.000118517046431
-0.000414711941651
-0.000805240543379
0.000215854812866
-0.000392892483631
-0.000364578917568
-0.00100214260228
-0.000954017975047
0.000271918621366
-0.00050970264091
0.000292524777437
0.000957899140458
-0.000911941476875
-9.62171324759e-05
0.000842093266466
0.000768689476021
-9.48599332344e-05
-0.00058348042433
-4.1806727709e-06
-0.00107123825983
-0.00104749073521
0.000540530920995
-0.000928807866196
-0.00125700894582
-0.000385327606244
-0.000230742958226
-0.0010950800234
-0.000958890811816
0.00115404282417
-9.78846119712e-05
-0.000142755322259
-0.000141963050593
-0.000843273045504
-0.000628517131639
-0.000236240817277
0.000912787676355
-0.000861246762347
0.000375555846744
-0.000603145075618
-0.00106132392271
-0.000128261572092
0.000563281769215
-0.000159000337364
0.000309266587112
-0.000388875027486
0.000317970844063
-0.000427383356209
-0.000515497285191
-0.000921098751723
-0.000188952406132
0.000486639657345
-0.000577300790319
-0.0006475420215
-0.00123913872296
-0.00128242318449
0.000453714443848
-0.000412607165122
-0.000632561846998
-0.00020961242578
0.00100902247425
-0.00039468897793
0.000574770663094
-6.75194282528e-05
0.000391037227058
0.00121251444109
0.000376680609952
-7.31946257733e-05
-0.000691969194869
-0.000678452357465
-0.000336069767704
-0.000613350546613
-0.0010131133059
0.000648867054235
0.00104199891555
0.00127837955256
-0.000990086035902
-0.000123361736018
-6.50186487061e-05
0.000226815359597
-0.000283449336946
0.000694772008756
-7.30125119012e-05
-0.000578450018705
0.00111689914712
0.000325778976062
0.000169777536326
-0.00017962938141
0.000845289704469
-2.82531564624e-05
-0.00102132013361
0.000329090157362
0.000265081177811
-0.000538810357799
-0.000746509803224
0.0011030019322
0.000645973511251
0.000452600770949
0.000746315240497
-0.000607773678609
-0.000778441888315
0.000314640739326
-0.000537042770837
-0.000477439874613
0.000791664651638
-0.00079028920654
-0.00034646198521
-0.000879741301999
0.000292814988614
0.00114212684268
0.000528004725515
-0.000558819359777
-2.36545981196e-05
-0.00110100876152
-0.000724975018802
0.000900625205616
0.000830138512747
-0.00111469115356
-0.00107265054629
0.00075555867479
-0.00123836706812
-0.000620217407369
0.000331018045212
0.000388128617642
-0.00109216771911
3.91212188342e-05
-2.56302534168e-05
0.000698569278114
-0.000610052249998
0.000212831886673
-0.00046209818152
-0.000441263146444
0.00068645129797
0.000698117825291
0.000434791843016
0.000580105904216
-0.000547660608374
0.000872465360906
-0.000354323863364
0.000216356999067
-0.000348401950771
-0.000440708931659
0.000130918663763
0.000100793018723
-0.000822276805887
-0.000839999521586
0.00034753575181
0.000516201985463
-0.000469097286482
-0.000498711120566
-5.65797477007e-05
0.000406643968442
-0.000989965157642
-0.000601255153536
-0.000955285724426
-0.00104234550631
0.000557344150375
-0.00020617253051
-5.56115857673e-05
0.00105546542572
-0.000143546515567
-0.00116220755286
0.00129742914499
1.97408372614e-05
0.000106429764177
0.000123119680883
-0.000310954412099
-0.000943063831757
0.00121332034224
0.00104026222786
-0.000372869124857
0.000443055706636
0.000745884408383
0.000788322924177
-0.000726747263291
1.2484591699e-05
-0.00102229030065
0.00110669959739
0.000781831196457
-0.000843554782263
-0.00102432092858
-0.000501588471439
-0.00018208248641
0.00106043641889
-0.000800329223142
-0.000519575379086
0.00102297046
0.00106148394621
-0.0011934721079
0.000519451019439
0.00100362353668
0.00028430260452
-0.000472973704931
0.00010624289742
0.000268526229553
-4.91396071392e-05
0.000925986923748
0.00137330681291
0.000169643593273
0.000806676936315
0.000204777593474
0.00102120817229
-0.000162401640783
0.000116098568743
0.0001005419143
0.000376986369876
-0.000918108426187
-0.000192562012989
0.00064551568275
0.000508920824816
0.00109958296526
0.00123561303861
-0.000594924837789
-0.000832936577604
-0.000418768972743
0.000471821731883
0.000412475925797
0.000286817953188
-0.000481524703319
-0.000230730654306
-0.000646661490453
-0.000841930741757
0.00109422966817
0.000521498464842
7.12696379058e-05
-0.000545126632214
-8.18749688881e-05
-0.00112833443392
0.00071913389483
0.0011051044768
-0.000779868714517
0.000688641640673
-0.000311732243506
0.000839547111601
-0.00128309976627
0.000252198030781
0.000463992491986
0.00106046670933
0.000821455901377
-0.000972777921903
0.000900548852218
-0.000866437982043
-0.00101528163266
0.000136030514115
-2.96471575295e-05
0.00106029750169
-0.000148455163892
-0.000217095106429
-0.000146555265324
0.000377818151696
-0.0007017474275
7.46693535812e-06
4.36757900132e-05
6.14353708594e-05
0.000881373135188
-0.000587638171184
-0.000912506781815
-0.000213054960802
-0.00062430079209
-0.000515585453594
0.000721358716257
0.000437459424458
-0.000553872780795
-0.000214186402566
0.0010069408534
-0.000818556487759
0.00111121316011
0.000644537953005
-0.000969384181133
-8.83695057449e-05
-0.00103511007844
0.000948059159773
0.000587578671165
0.000128993419847
6.0277698456e-05
0.00072974912077
0.000300757071425
0.000298752493198
0.000907073149372
-0.000859863360681
9.68808489456e-05
0.000266100573535
0.000221955035912
0.000400279087769
-0.000655454988678
-0.000127050203494
-0.000694713675106
0.00113332236064
0.000807209060145
0.000333317204004
-0.000580106976411
0.000554241180143
0.000560767592342
0.000452197697434
0.000841079193195
-0.000696365246186
-0.00078984857072
0.00041639854645
-0.00023769788985
-0.000207245980442
0.00014747055425
-0.000954125397242
0.00087746880967
0.000379686320792
0.000647441881804
-0.000630265591056
-0.000855555950974
0.000977369293922
-0.000686180436627
0.000310942508075
0.000215758961688
0.00105555721451
-0.000310215434
0.000830196297542
-0.000775125353215
-0.000451591889736
-0.000146574221444
-0.000511487578182
0.000524533672245
-0.000144567498357
0.000722033503339
0.000983886206371
0.000448087541269
0.000168219542326
-0.000203979168242
-0.000620358787204
-0.000319425305621
-0.000432957337589
-0.000641073742242
-0.000591530501018
-0.000342355463023
-5.6866621314e-06
-8.42628927265e-05
5.93012110879e-05
0.000266333349597
0.000358458268794
-0.000530896524631
0.0012363956353
-0.000172337255964
0.000395503928212
0.000460423250102
-0.000757988702661
-5.9424205911e-05
0.000231595231483
0.000350202712227
0.000452584288042
-6.66027825505e-05
7.81307433221e-05
-0.00025493750214
-0.00101981059947
-0.000949286965222
-0.000743804526606
-0.000573005501364
-0.00129939839431
-9.61641557139e-05
-0.000764646084998
-0.000742491853525
-3.10449965629e-06
-0.000753291003667
-0.000942192898889
-0.000826912299229
0.00099717117292
0.00121867979831
0.00111198514231
-0.000312438663339
0.00092804190486
-8.33563880125e-05
-0.000641465938484
-0.00038762133198
0.000560951632083
0.000489281243584
5.9591816785e-05
0.000450403082519
0.00036149311393
0.000509705558242
0.000187071801392
-0.00110072541298
0.000784118488769
-0.000470138874699
-0.000572151318628
-0.000615459141919
-0.000416486477837
0.000424356339598
0.000805573512718
-9.25242901031e-05
-0.000420550260075
-0.00102549587458
-0.00037619339971
-0.000542287220325
